0.01637116932596766,-0.001420432008214153,-0.003038749732142809,0.0012319997342136054,4.4904166020129626e-05,-0.002378287297825227,-0.002333386479650924,4.5696923687951014e-05,0.0015122613125863767,0.0010428137430231158,-0.004888545856783675,0.002382681156589066,0.0026226118908050057,0.0021760216649692092,-0.0009320064764225982,0.0005044399058635639,-0.0018759164074530499,-0.0008796716841890939,0.0013284825254176486,0.004246697230565243,-0.0009626325912467208,0.0011077863658086925,-0.0013218110641010597,0.0017788216483106106,0.001029312751235079,-0.00452567351347837,0.0015079597251915382,0.0014410794293877804,-0.003541515633689596,-0.0040650544291408585,-0.0019650349759402423,0.00244646388334398,0.0002870944102632701,-1.1202069787234237e-06,0.001976704017673172,0.0004380966128528617,0.0010331998721646615,0.001555602242555871,-0.0030465707611790752,0.0030227645532791276,0.0001671311997401008,0.0004236504860967022,-0.0013544325287308352,0.00013448888560200085,-0.0026967643446189813,-0.00018662985040051298,0.003137066075612272,0.000317394293468699,0.004572285132085876,0.005260639665148161,0.0008153907909764855,0.0031970099938049695,0.0018608966769817423,-0.0021734837531528156,0.001510824033693158,-0.0012601558377740465,-0.0023240911927647715,0.0008844118221461667,-0.0024108627034987225,0.0030026635077957573,-0.0019328861234128671,0.001591111317622498,-0.004888537407362063,0.000170347503016774,-0.001651498358704459,0.0006978008534873632,0.002017002305867947,-0.0003367018693956735,0.002306751051453659,-0.0013725143304897712,0.00014374630613512123,-0.0011080931625476868,0.0027676850320257538,0.0010694840386544743,1.3855704301929308e-05,0.0026558302974550663,-0.0032256324841709377,0.0003198559976548999,-0.0009842888684908708,0.0048700022190592005,-0.0015335945148715416,0.0005114396700021534,0.0001617053369849084,-0.004098198250084263,-0.0011238187833965186,0.00042192758831551675,0.004685840848787268,0.0009150508595040035,-0.0032762050502172456,-0.0016508293062830804,-0.005049969261678036,-0.00010298243356095111,-0.001430785924290006,0.0007432904192228774,-0.0010098325871142249,0.002174143290152736,-0.0014812346258821767,-0.002620141079914334,0.004069447418394739,0.0003236442572172189,0.0002619545534578662
0.012774655856029835,-0.00017256049426835618,0.0008255696148542458,0.0014480154893230003,0.001690276086530014,0.00020119437072965764,0.003988872954331763,-0.0010233400202024098,0.0006827454858073145,0.0010211039518457734,-0.0006376948250607264,0.0031066284191746717,3.608214159746131e-05,0.002239634359017564,0.004213229856532845,0.000326773925726012,0.001436462854714856,-0.0014320488418963708,-0.001668241144637514,-0.0036738257883634218,-0.00042598528717897866,-0.002020313088608109,2.4713773204635726e-05,-0.0009995832677562315,-0.00040331026165372867,0.000722182451671214,0.001363170001239734,-0.0008219302662656342,0.0017687099450031615,-0.0010906149952347823,-0.0022248286987988364,-0.001888954041838593,7.663158814467559e-05,-0.001643140029368646,-0.0011746266464110393,-0.001864611582177128,-0.0038571078019744034,0.0024449245698216293,0.002833859056204883,0.0018906928831597196,-0.0041734322673104875,9.917053551941968e-05,-0.001618077197576767,0.0037620853115416125,0.003586958266212885,-0.0014860555060948583,0.0015447561383294234,-0.002078400047893009,-0.0002751369998047457,-0.00035167782945065535,0.0022645609022569737,-0.0025782710900612003,0.0013443437963991465,0.0027014717426054073,0.0010470605288778142,-0.001963470403039911,0.0016569850607231352,0.0001372092501175001,-0.0021694771454118236,0.001434990621041834,-4.555577929476083e-05,-0.0013307760426947265,0.005043470612787762,0.000341347263903238,0.000193554239158214,0.0013591712221737956,-0.00047017963989715576,-0.002380793051484988,-0.002044911223658745,0.00011503405233282199,0.001366637991307324,-0.002028919053775339,-0.000680433366455942,0.00288117958675842,-0.00015594096047771359,0.0022442953290573854,-0.0026183923919818864,-0.0021265219750083047,-0.003126120060680607,-0.0013483468615232265,-0.003208006567483225,-0.0008893047114422941,-0.0020256282466799913,-0.0025052093801322035,0.0008621477342069635,0.0009356585369643805,-0.0017448861593462976,-0.000381936802330247,0.0008309674409559108,-0.0010919831589682697,-0.0017258477627313657,-0.0025623470153563173,0.0012458205326619546,0.0026225536692779466,0.001552670576334327,0.0022867322555242585,0.002902690999496912,-0.0006881840488982347,0.0011256737823707682,-0.0003141982609569775,0.0017660956019803255
0.011427824875389124,-0.0024226216208505483,-0.0035321448555968296,0.0025082156914337157,0.004816817280864497,-0.00013832468611210281,-0.0022925407648298627,0.0021698839349235453,-0.0024980614560733195,-0.002984609193576021,0.00048008270397884684,3.4981882840985764e-05,0.00318234083964,0.0038165788861280942,0.004913407459025693,-0.0026867088321481875,-0.0033314418482838157,0.0011287045229868835,0.004312042487476959,0.00047330382210724264,0.00038699827768844954,-0.0008793955593141518,0.00031823101922323003,0.0044060942668010744,-0.0013492378044814408,0.004197909627666236,0.002433595400660191,-0.0010799992351500068,-0.0021989508368330337,0.0008998066070465251,-0.001213690979264738,0.002706087297500564,-0.0019095607092155336,0.004696455105802298,8.163355574881243e-05,-0.0013074092076497718,0.002958011150435793,-0.0014263252559300623,0.0009388895766272734,-0.0010810161260841437,0.00041784134307404775,-0.001738719752486202,0.0024598527144753402,0.001972599438857591,-0.004518561448203811,-0.0020308700488757938,-0.0028733332419116934,0.0016443812095543152,-0.0025188639620775783,-0.0002942039732144699,0.002241204049447199,-0.001277039259694804,0.002571617673793541,-0.00048105236631499195,-0.00027714590669818145,0.005237746076492096,-0.00582911468229644,0.0012278698028893992,-0.002256097399107282,-0.0018318265933277508,0.0019452704704225477,0.0010157447104458632,0.0008816079199491976,0.0021783762350656923,4.501894914379365e-05,-0.0029535048064320488,-0.0018261772443777975,-0.005309651169901999,-0.0013171311141308543,-0.0016075272472151584,0.0009942353698267185,-0.0027971716414413304,0.004377606588688151,-0.0009673254203242521,-0.0001780478233355689,0.0040437891511093515,0.0038513619308985815,0.0006064430755846607,-0.002436730966362726,0.002414201789705184,-0.0039447827244417635,0.003579168585581555,-0.003676435732676765,-0.002094074619103483,-0.0026980831613915256,0.0029354439224783856,-0.002866722960827913,0.00011048836286906995,0.003951298883185085,-0.002519176814483867,0.0017922633796932882,-0.0015860361150885154,0.00045297538029176075,-0.004274312861643717,0.0009553992744131889,-0.0007481709147944547,-0.0016250985361311756,-0.0018081247025818158,0.0008058185471746306,0.0018349950357653866,-0.0005806945446338996
0.011103243582241878,0.0025179826171665928,-0.00024270871432776204,-0.0011199579895784545,0.00032848782985744863,0.00043311098592708537,-1.3671766380884488e-05,0.0007245805998338731,-0.00028546154701759055,-0.000554021723707557,0.0016460912775478973,-0.005087757978731308,0.00227613043709523,-0.0013965588006310686,-0.0030901699569593133,0.0007465866644808257,0.0004152226086951099,0.002825016603591081,-0.0010180810373648845,-0.00249860179424054,0.0033317088896085167,0.00031423033519771705,0.0010887991024026422,-0.002349464845678612,0.002966499601791464,-0.0054493363931085986,0.003023851914010673,-0.001801735716536299,4.3036347702825326e-05,0.00035105884487593463,-0.0012432572814479101,0.0001803682358263111,0.0006647737244487638,-0.0010882494751690162,0.0036443252688790327,0.0034556121745621406,0.001115519931289878,0.002455408384717381,0.003508307890460823,0.0012046704543823364,-0.0013443968992629027,0.00169803000180141,-0.0016745351580821455,-0.005695017093455891,-0.0018523316232409652,0.0012000039105688164,-0.0027925521733907508,-0.0016483991700576544,-0.0009363380967139827,0.003896946125732337,-0.0008527258034696951,-0.0016636235813280603,-0.0001506464511399424,-0.0012111008766028798,-0.006170410047742935,0.0001147720521318351,-0.0012858912598514667,-0.0009374922031158894,0.001465667607852034,-0.0002681201707162411,0.0007111559636669472,-0.0064458072248336235,-0.0027153553076721955,-0.0006874285510845659,-0.0025346337192137833,-0.006437178189241226,0.0009961822740059492,0.003215675289504772,0.0010785161861452202,-0.0017346744486331916,0.0024424009685981864,0.0001643598212543311,0.0004204944496822807,0.003902721617284674,-0.0019005335365128721,0.0011127803209975886,-0.0016049321002217642,0.0030806598638567105,-0.001937728543627757,-0.0009158836360468783,0.0003550752925482745,-0.0014743115296698818,0.004129254571862797,0.0027665695461197974,-0.001230311792124238,0.00016969330640220147,0.001775942288849621,0.0024073861575158013,-0.0008675570926605996,0.001624187208785347,-1.2203933677540357e-06,0.0012837208605256205,-0.0012189267815630258,0.0010055973072527534,0.0011872741879445912,0.002601898005022112,0.0006671571367648178,0.003638457596374929,-0.00020848186511242581,-0.001230572989059928,0.0031756625227953848
0.012920038537816392,-0.0004989336476004366,-0.00321230073146838,0.0002988819005921502,0.0038724576417463186,-6.605174326987113e-07,-0.0011977746924797324,-0.0004194198540225307,-0.00034307308849483657,0.0009657162349790695,-0.0041503308982517115,-0.005662557094685749,0.002729071038515424,0.0009823589222346194,0.00026050634189733036,0.005116447425116812,-0.0022885807116269016,-0.003441753207474816,-0.0013574396007056116,0.0005045291306961559,-0.0013879526420883493,-0.0012433438995563522,-0.00014017923000476576,0.00354898734634288,-0.0010759719760137577,0.003010303832574025,0.0001541603420575962,0.0037652530833625327,0.0012797946246805882,-0.0019423731122811525,-0.0016120801501928197,0.005544947424582993,0.0002721958911070019,-0.002962041912861322,-0.00042474807782782125,-0.0032187917738982197,0.0007424670704928669,-0.0032719509813047636,0.0015798740258342332,3.9919286253134716e-05,0.002936213005535541,-0.0025424838603917573,0.001586771613378782,-0.002535953680247391,0.00018921775510895674,-0.0002666444138681885,-0.0025031695128993696,0.005006383233667133,0.0005246939136687537,-0.004031563142696967,-0.0016737061514100389,-0.003959025616559899,0.003944435133582005,0.003578300684044611,-0.002529936195765705,-0.0006689190689109951,0.0008233462891662037,0.0022026136535009976,3.8113253799309727e-05,-0.0003157595215586232,0.002449575425610576,0.001756463530952261,0.0036641032309260935,-0.0030649910812174308,0.0012143698025720464,0.005102642387589529,-0.0017412756722826072,0.004613781619363008,0.0015398992844528185,0.003812343661890976,-0.00046823263004349466,0.0018886593247212625,-0.0011983423696793314,0.000797482902048325,-0.006076099817068643,-0.0016839946061485583,-0.0034812178762462275,-7.904853843457466e-06,9.602789897383235e-05,0.0002610928098679643,-0.001405227117060905,0.0008795063064738716,0.002795492061009577,-0.006315762287513969,0.0012735213767704164,-0.005728907942476309,0.002549986368934683,-0.0013314168629097768,-0.005108391096794252,0.003628993788488546,0.0028009110560538435,0.0016967696918252743,0.000983737186622664,0.0025111299030650324,0.002665863249997682,-0.001445424978571415,-0.003197853676292045,-0.00027041763572330783,0.0030236385269107975,0.0018411135097232915,-0.0013651344107489072
0.01348350980903223,-0.0008337041932638326,-0.000658001678434517,-0.002141703351006101,-0.00012076384459280762,-0.0028739084384192663,8.000045174654385e-05,1.889583899794718e-05,-0.0031196108927751326,0.0007880024171293907,-0.0010843360373775342,0.003855318947187199,0.0020415444380970293,0.005164073917114579,0.0004351834445127583,-0.0016649177937923735,0.0026910356197311497,0.002630524509762985,0.0003573919257119322,-0.0002834498486563914,0.0021195460285919018,-0.005703702824895776,0.0030497089887431554,-0.0028633875659946515,0.002272506859482412,0.001333500304410224,-0.0018808606437723118,0.005185528882686821,0.0018432137694289288,0.0016562202555835425,0.0027551529741506493,0.0018536579900902239,0.0034580088306764003,0.00026040042512951947,-0.00018942003686378968,0.004757592920411171,-0.0020253696576780006,0.003918763604934037,-0.002004361214917744,0.00343365532860601,-0.001523720663053204,-0.0019356935445110767,-0.001739658607235814,-0.0012503352566462771,-0.0010686325042613683,0.003591299776445285,-0.0002421819690335616,0.0012123049495344456,-0.004460330300720176,0.0009839623991754834,0.002356619704332561,-0.0012597784451939542,-0.004094915075807058,0.002170526755697281,-0.0030108526232793045,0.001249542015777584,-0.0017818785539964771,0.0018684647095047993,0.0019386868069583292,0.00031765852985838884,0.0003224115202017746,-0.0043276247390733975,-0.00046990725935331463,-0.0019842209530476036,-0.003959061541692061,-0.004798839223786211,0.002819152639537611,-0.003713899069331509,-0.002217515117298004,-0.0016998979438365407,0.0032365762090351795,-0.0017655694397938897,0.00030900332920125417,4.158301773909555e-07,-0.003143555283996838,0.002296875811956609,0.00018888025388373057,-0.0034763365465889247,-0.0018595817648787462,0.0033020879905901073,0.0011476400535156354,0.0011544595960550686,0.0053753756922172375,0.0020967054354233254,0.0021030212575206585,-0.0007089896275711395,0.0021110438867313224,-0.0033808839905541026,-0.0002838203905546824,0.0053727114780763,-0.0008305688452728104,-0.0008872877489792374,-0.002657415059888564,-0.004863843537548193,0.0014803767837133414,-0.0022448265843797418,-0.0015069867067438855,0.0006163214175725183,-0.00036179333357719555,-0.0010073290088735624,-0.0005934877493856685
0.011384468446973273,0.0027370345473039727,-0.0006737841878984018,0.002479669784109755,0.003788167326072422,-0.004452741296075534,-0.001818816942728414,0.0031473397380556768,0.0019646823787698386,-0.002431979634602636,-0.0015858079300934912,0.0016599282426682533,-0.0013653377312883225,0.0009100656119200639,-0.0015092763040375295,0.005941227861253643,0.0012495138139019294,-0.0016074388540174075,-0.0016331628624613758,-0.002073702284958558,-0.0014441186964366435,0.0022785325954992478,-0.00047419698843474635,-0.0009419932061981474,-0.0005641733332366394,0.0013178932322832457,-0.0021641896935380117,0.0013872284688263106,0.0018859386153816167,0.002729935093220833,6.926020362919968e-06,-0.004707801972824939,-0.0016457656352657376,0.0036309267840867543,0.0018364126082157516,-0.0030626947421488193,-0.003829751464521749,-0.0022122584850601153,0.001213719412846297,-0.002444840141056263,-0.004932387911423151,0.003167786952934655,-0.0006899209562813535,-0.0009798690222145297,0.00581537999746159,-0.000784584159784864,-0.0008320176951292009,0.001201649819078725,-0.00031466374427540424,0.00012345790181580215,0.00037519483456421507,-0.002581625765651567,0.0016803770880160884,-0.0017896509993501502,0.0006457855883478539,-0.0018340339580924802,0.0016385909971411144,0.0028053649223105186,0.0020694782573104946,-0.0012902779600234625,0.0006862236002098513,-0.0012414454481402921,0.0007624959676339773,0.0025340611530276272,0.0014097038556704759,-0.0027562089786550095,-0.0007284210124145726,-0.002098984433073264,0.004047835216330795,-0.0008631353573863125,0.0018671176468352453,0.0003747762975794879,-0.0037550547640295604,-0.0001871782672393405,0.001340397945021874,-0.0009827791730937711,0.0013143596434817455,-0.0005846298607968569,0.001356592875301307,0.0008054367126215713,0.001512595202566732,0.0006741796561841988,-0.00031471579237220417,-0.0006147098407353845,-0.005301170802540099,-0.001300663135381973,-0.0006321657774589018,0.0006673586949287921,0.0010044744549383207,0.0024477429558813907,-0.0014892578833730786,0.0007125123614936091,-0.00040477822377451677,0.0007973694578717533,0.003944758276916994,-0.0016089309502307283,0.0025961137591046157,-0.003917857580902932,-0.00018193069166552093,0.0019886911252095505,0.000718966075485587
0.013308577382587384,-0.003255002962291374,-0.0026834936039421653,-0.0021093776686476155,-0.0003224048764718484,-0.0006580425611570819,-0.0003196391511694128,0.0029143033703410014,0.001652727670637858,7.764408507831434e-05,0.003571099576564636,-0.0005742314298546978,0.0012051307709957698,0.0019243790395060839,0.00030497928938773446,0.00011627505588030678,-0.002065779292131161,0.002313004881428178,-0.0003044712927739039,-0.0007081394864423681,-0.0005141776315062713,-0.002450066966824839,-0.0008357113239874051,-0.00242587204788377,-0.003984859345011166,0.0007251755766090294,-0.0006180560744852922,-0.002268634082668615,0.0006520522777295961,0.002016930841835328,2.3067663310457655e-05,0.0022696102699961114,-0.004511628354533739,0.003541317420380147,0.0007881818800423825,0.0006785303519716382,-0.00046177692789376617,0.0001847530631578495,0.0028075205003770406,0.0030927301510207316,-0.0030637685937880315,0.002233858188173502,0.002228319081800098,-0.000969475842433973,0.0003685951831950673,0.0035919978169336973,0.003917556990506657,0.0017602277479848917,0.00028327195730233883,-0.0008645379359648299,-0.0020947283367600718,0.002187709150430815,-0.0013370639782005096,0.0007137702267293457,-0.002037863330068731,0.0008648013291661452,0.0018689934987385789,-0.0022836318019172413,-0.0003446895731184179,-0.0044547000178463145,-0.001869318847680527,-0.0003674873671633444,0.008454280027695535,-0.0036035133664349293,0.003029648690868715,-0.0014281008323347665,-0.0031547916320174446,-0.00047393366865514645,-0.0004570603003302749,0.002567572308417803,0.00046340877953033374,0.001968380921684669,0.0033260332232135223,-0.0030772420232162813,0.0007919677477064962,0.0013390535464156003,0.0035612437258158484,-0.003012168573591597,-0.002911453894255002,-0.00048008092752092603,-0.0009406303776813219,0.003868938647003551,-0.0010678202784958762,0.0018640807508929283,-0.003706812022256501,0.0012454864882249542,0.0004682319775349688,-0.002835935862395832,-0.0006323189364845335,0.001617780407165473,-0.00038716181836691895,-0.002341288973290604,0.00010373316268453055,-0.001457040758728265,-0.0012489665310584193,0.0003726381983095348,-0.00010582410624896928,-0.003422046033467589,0.0028739482669099844,0.0020238092893498606,-0.000589462224139461
0.009134669721129885,0.0026628148850156275,0.0036347553958619274,0.002629683701087789,-0.0017250127443693395,-0.0001792669802603044,-0.0035931191150419288,-0.0014689379391783122,0.000247376946081091,0.0012028712832750014,-0.00015579369170921924,-0.0026186493978794835,0.0002104750257537615,0.0019598521087409054,-0.0003001427251398554,-0.00030768781967964855,0.0007096548277915384,0.00034614540236915976,-0.00022999570507552472,0.0015534257162228755,0.0005282111529607178,0.001482650665290896,0.0009405041614081513,-0.0013551759305874477,-0.0033789681392151346,0.0009327033621760985,7.962026137661344e-05,0.0034858981407740125,-0.0042115686099240554,0.000509946310205532,-0.00014040303038726412,0.0005904432996183153,-0.0022785180582359866,-0.004032322552546622,-0.0035299207076451415,-0.0016319798995374471,-0.0012004112168759518,0.0022176835593545026,-0.0036587143413983336,-0.0001714912391579905,0.0015128964379858844,-0.0028252569233617564,-0.00017354360419738723,0.00013862397279844116,0.00268537909936034,0.0017910650777591345,0.002186278670816352,0.001579725895802361,0.0063188783197208,0.0017658350878749663,-0.00033277888293073416,-0.0003148693420549668,0.0002644207960834837,-0.0009762734627093598,-0.003278428850053549,0.0017530849575105305,0.002282003018854845,-0.00278366372135459,-0.00503151310622543,0.002069316865082735,0.0017488226396425825,0.0015134724823660428,-0.002375968335191458,0.0018098817519307104,0.0035298021621951517,-0.00022991565287626168,0.0026836391976979264,0.004146089813068453,-0.0011606601986414668,-0.002105641105576194,0.002146026770819459,0.0011405077824176346,0.0006540879422480185,0.0034622285276507576,-0.001470937924847968,0.0027971911873248346,0.0008031150396566634,0.0006658321766517996,-0.001961842452903685,-0.0028118641854269254,-0.005083014903197855,-0.003086394345996084,-0.0014941602067426705,0.0025169410612740735,0.00046093623727598565,0.0021377936242991473,0.0012635665557161819,-0.0006318867024852302,0.0017219994226980299,-0.001322648608407247,0.0013614978562596965,-0.00021130782852874639,0.00014906064374576615,-0.0009668553210088408,1.5451617613579296e-06,-0.003753526444428272,-0.0006654015374887593,-0.000845912846422493,-0.0019244154448411726,-0.001551131792939278,0.0013012203573754626
0.011913027492151942,0.0047914325594807326,0.0006314409957481882,-0.0016282780866504261,-0.001360333350862138,-0.0018312000694421723,0.0014545762458558265,-2.0834328887262172e-05,-0.0017761020168662455,0.001124865403073911,0.0012024806590912405,-0.0016589516949229478,-0.004112866185218083,0.0007824788301098801,0.000823256808007118,0.000772066611621767,0.003089524746437678,-0.0014760156969006997,0.00034852318167846936,0.002437077002181652,0.00112408387508582,-0.004967024451661431,-0.005224569655224067,0.0029501111804009226,0.0006121814969438424,-0.0013005785767023204,0.0020753410315404613,0.000740308066135643,-0.0028016988978736383,0.0026667085144243133,0.001507382006596169,-2.738156390869502e-05,-0.00034724538103628926,0.0007687352860237084,0.0009473148879378158,0.0031474131984316296,-0.0027713276648716526,0.0023449619749062916,-0.0017524136430402356,0.0023992870100783574,0.0005403404779866826,-0.0005555899815790691,0.001254942720665346,-0.0008231189398040375,0.0005310140215191086,-0.001275111723737936,-0.0024639397874211552,0.0010065550762288935,-0.004456367364414125,-0.002989508209797552,0.006629269689483802,-0.0006194580025685746,0.0020215308659728903,-0.001506882669264559,0.004091080435082364,0.0018063380743131463,0.0014114173904714211,-0.0017604168992299107,0.002217853736559275,-0.0037024745291744966,0.0021684123732592367,0.001218811663983819,-0.0010499129425567259,-0.001074161294684465,-0.0018246422349419214,-0.0017731046050339,0.0003039424863418537,0.0032175119661701154,-0.0019488027948369666,-0.0008783664669211478,-0.0013697068765985325,0.0018888549419597042,0.0007033164616774174,0.0025190668306706568,-0.002400360865332883,0.000590639308978609,0.0027356083264213496,-0.002941140259892213,-0.00027273665134590715,-0.0021985364585641043,-0.004823957796761842,0.0008477413675246901,-0.0014433358270086317,0.0029392101922574437,-0.0016903916079306865,0.000732631701813415,0.0025581234963068704,0.0017208919572523716,0.0033984897976707894,-0.0004137866114966079,0.003012167557813119,-0.002050438421012754,9.014675707469214e-06,0.0023855521160110493,-0.0038820369397801376,0.0002582641491788582,-0.0002971455528312697,-0.0021329169140060556,0.002464949561664509,-0.0025566324397841823,-0.0025320260176673564
0.014398827646197074,3.507175654843629e-05,-0.0003730173237759089,0.0012651208033551031,-0.0012394080254851806,-0.001075672285833765,0.00030191533131008417,0.005529208226694582,0.0023582770949417244,-0.002166251267362517,-0.001548570110293934,-0.0003277453594871398,-0.0008738081036378742,-5.3549946267719345e-05,0.0005862671293674821,0.0005223438298911343,-0.00020149062880892924,-0.003393733976875801,0.0029687230381085596,0.002521464968095207,0.00022932956761831822,-0.0003530114078179481,0.0010858594998825444,-0.0006101766308243616,0.00435106859503868,-0.0018101419646327373,-0.0014929837643407654,0.004339504745899758,0.0023749552736353798,-0.003144965004699788,-0.0021541086705761034,-0.0020854211425928005,-0.0009221599667509841,0.0017589311409191225,-0.002247714436730055,-0.0036851825949829795,-0.001962658993380854,-0.001222315148890792,-0.0008913482808898303,0.0020843683545419696,-0.0004278132624157919,0.00027509950295272277,-0.00031283515973339033,-0.0003661417904800882,-0.002377128472992487,-0.002358566001228587,-0.00175741424773645,0.0030558703845240814,-0.00146014385696248,-5.3145712659208224e-05,-0.0006119462466929127,-0.0006820673590978869,-0.0026029556844384153,0.0008303475621903523,0.00094927235821042,0.0036016836097693405,0.001275599740354176,-7.35579055085e-05,-0.0036844125366282234,1.739258998256863e-05,0.005365830854347456,0.0031197774036974173,0.0026715730097887115,-0.0022073953041737903,0.000536487659264059,0.0021013523706655546,-0.003414054086004931,0.0014619382766479009,0.001807210704537045,-0.0011017407829538156,-0.001150583169787028,0.004491568926686169,0.003387206793727675,0.0012713801426519416,0.005307330135378416,-0.0004153008021019162,-0.0023732473804293176,0.0001748583851200785,-0.004134371362053943,-0.0002596997963227934,-0.0026228806678937435,-0.0033361130778760697,0.0006779118867684988,-0.0017678443864079679,0.00185146726538978,-0.000713800278840791,-0.001782790701497337,0.00022614469790217055,0.0017938510420582813,-0.0002684135256415945,0.0030361667725259714,0.0033819677411523847,-0.004335802148398913,-0.0003969415170399792,0.0007480271931273114,-0.0017841960800924982,0.0032994953476843,-0.006443630471384176,-0.0016871394117681407,0.00010104495157873451,0.0034622568677608323
0.014300998411246763,-3.0993304846599344e-07,-0.002799223228068834,-0.0016437720084827173,0.0033395722345901783,0.004083433409894584,0.00256947314795647,0.0027040036380600583,0.0019505082377846649,-0.0013096383757197707,0.0005081098090691165,0.0010388987853625184,0.0007416400757241332,-0.0022409893786713548,0.0020358948709995896,-0.0007518017304222766,0.0003246816088134776,-0.0033387343382654403,0.0024719853638863454,0.0018721554778479664,0.0005064152472911427,-0.0007298331716009583,0.0008959900164296968,-0.0022913682055878586,0.0035998659994875997,0.0018007947466785346,0.001189528786852093,0.001622045231722951,0.0031412286082264608,-0.0036537176092201985,0.004391722214618537,0.0012866754603992599,0.0006796549732197658,0.004019631982779747,0.0028707300795811673,-0.0002068690215643011,0.0012656000482689968,-0.00317043408117637,0.0002607596456843615,0.0004169138770267709,-0.002688402665729387,0.0003801909618626328,-0.00353470804033998,0.000888960547289161,-0.0016876995100159372,-0.0030191650736322083,-0.003008562927737001,-0.0013000593533975834,-0.0011098947686871909,0.0007509712186439777,0.0033147913373406807,-0.0011688426264186039,0.0027712082246924463,-0.0029478334524602745,0.00038745704059026966,-0.0016389499589424359,-0.0007648955340701614,0.00250737133274609,-0.0004960747680315977,-0.0021445025745346277,-0.001015509339236318,-0.0009352382518283298,-9.505375575733689e-05,-0.001137945671557356,0.0020140805020530212,-0.00039039499445189617,0.0004912578117608467,0.00021709053741280452,-0.0028369406094621748,-0.002009468372282098,0.0008107487947974959,-0.0011539809111130255,-0.00018244439894433886,0.0018624525245246805,-0.0029968984835342096,0.0006969633284374062,0.0002073799546490897,-0.0019282943985304384,-0.0035224175112903494,0.0002909015828061823,-0.0015467508633893576,-0.0032685778463251262,0.0002265297050884536,0.0011808424369789518,0.0036288902930706143,0.0033291444204443014,0.005473855266422787,-0.001686771358171569,-0.00017633381760098166,0.00017940919262793173,0.0005382504653417841,-0.004573016006476666,-0.0007477309486984237,-0.0016045539627422424,-0.0019330269275846565,0.0025441387796249723,-0.0008876024981378809,0.003683955015070243,0.0006821693471859121,-0.0028300971118533002,-0.0025721813193091514
0.009537458873874406,-0.0020335723809380623,-0.0019711108263406256,0.0017630968454212526,0.0007024833379546797,0.0013694610467455668,0.002088475535130789,-0.003202060673700913,-0.0013956963539477284,-0.002318850685489155,0.002961003018828922,-0.00017334095264789697,0.0002623892573274337,-0.0013739375586476713,0.0014945265127756738,0.00044091056054232044,0.0007524482806547694,0.0016192571973343332,0.0016229319456162127,-0.0014492000603555002,0.0024681960419635856,0.0030098864927491976,-0.002669028049019535,-1.4733725257025203e-05,-0.004485505964604309,0.002373916066091377,-0.0003518958668339318,0.0017975759279583857,-0.00011285564859118777,-0.0012953780266659483,-0.0013171928941623418,0.004163244736698801,-0.0022058452081157656,-0.00030405201364487963,-0.005592549599461391,-0.0042594986219121195,-0.0009855311089789606,0.00298606167945269,0.0006842468765388451,0.0028217583101128423,-0.0007337624563757323,0.0012754259766882862,0.0014484239556811968,-0.0020905091602084554,0.0016347958117650598,0.0005631877486262715,-0.0012811602518211368,-0.0016099346271736272,0.0019384324336836367,-0.0041210597878491425,2.034435060506111e-05,0.0031060384695305505,-0.004352371960386095,0.0016455332746501475,-0.0014850208957953885,-0.0029395196930348316,-0.0014602512964253626,2.0091169436766387e-05,0.00443445911685285,0.002232861177617348,-0.0020670741207804728,-3.6529394265957395e-05,0.0016701545602896407,0.0006545942131253224,-0.0006467008706951867,-0.0002444773258944503,-0.0025413878767992703,0.003035094489961616,0.0011920032448286568,-0.0010103122646748274,-2.5593678222976014e-05,0.0033988405407418946,0.0004829316443759559,0.0011506801492532199,-0.0028019049241630053,0.0011306967369533235,-0.001012781161309728,0.0020338640210976664,0.002387629843924567,0.0028188047480146626,-0.000655071750751778,0.004533250666362903,-0.002270090920810516,0.00016307196446312607,-0.0002396247684765162,0.00032703145777227113,-0.0037895786148340292,0.0029397070487120905,-0.0018093550254551516,0.0005412607042631223,-0.005623133987822129,0.000830217742361283,-0.0028881150981664608,0.001977432720747084,-0.0015846742123404613,-0.002914355887762877,0.001969360850037538,0.003146446558648132,0.00017582963254836353,0.00274482559558241,0.0008392617058891971
0.01627071803533647,-0.0006391886838342699,0.0002854541462311799,0.00063438287065957,-0.002109418346744882,-0.0029150219071102795,0.0044170846223711025,-0.000995610547297995,0.003786286293433959,-0.00011044926630422603,-0.0002646557774239117,0.0001329858515815022,-0.0003455265750419077,0.0011486118475915715,7.462839992493329e-05,-0.002227161825760958,-0.0016516353307150036,-0.0015933984942110453,-0.003709096269021492,-0.0027918966030727327,0.0010439168174696469,0.00117700435841959,0.001103833008423434,0.0026382481255022286,-0.0011134026727567877,-0.0003657487435106964,-0.002922858733721333,-0.005406508892838969,-0.0007158605588458248,0.0018911331768593988,-0.0020446386245986685,-0.0026514089895487984,0.002012287183708453,2.2691704408389723e-06,0.0028515988110878157,0.0011236987952901087,-0.00039634314099828966,-0.0013520349765928379,0.0007627465796280741,-0.004304908276313116,-0.0012787848632432614,0.0028483783750313124,-0.0006706145810796118,-0.00513222595367365,-0.0021824989892615283,-0.0031600860451315624,0.0006953989119909725,0.001932720142195558,0.002275131849322744,-0.0019288506531755626,0.0015516493383680883,5.4360542708738885e-05,0.0025306911082428997,0.0015009389053435196,-0.0014505058933053218,0.0014562153660401295,-0.0016852273696585213,0.002298817107640609,0.0007305384027654846,0.0017880133251742376,0.0041832259632428835,0.003019177982852936,-0.0005803322870992248,-0.0033059689980611353,0.0008319111783803788,-0.0012947978797313482,-0.0009848901210813804,0.0020915548430866108,-0.0012283319509836465,0.003435142345259877,-0.004524948376543355,0.0007580228664243965,0.00021619895763307865,-0.0004332311125601569,0.0027153237211003808,-0.0015360394374668838,-0.0027096008728879047,0.0012493098356512304,0.004084904181061671,0.0014770838059165981,0.00045183353100142367,-0.004044417536516119,0.002146814472907924,0.0008176692725954425,0.0013916061075621297,0.001994864078815433,-0.00137379340150515,0.0020158587991356463,0.006391510692291916,-0.0006931345230812827,-0.0017395370278511118,-0.000645632113424404,-0.0025382707741321035,0.003758528985560243,0.0029675370050491765,0.005359896520511056,-6.22312590206911e-05,-0.002896657498552687,-0.0014555291288052008,-0.002516459881933669,-0.0011980439475078352
0.01167519036691063,-0.0054401752401069215,-0.0004977305990420152,0.0006897413604313654,-0.001145282377957365,-0.002186901363925307,-0.001711713809562766,0.0013839922153379227,-0.002589537979084562,-0.0002023401484001798,-0.0008274427938335715,-0.000920217710883774,0.0012965786269505213,-0.0007562784246234101,0.0024506965853859156,-0.002711067147076329,0.0002918660553300069,0.0005655306472016075,0.007011172843965119,0.0004044435164230906,0.003662356133553106,0.00017302456747115722,-0.000981002513171921,0.000624328972080513,0.003120718545680975,0.0011983077716456098,0.0023696447658998537,-0.0012937515127647201,0.0029714657307385994,-0.00035582498094782354,-0.0017704637229034044,0.0015428497102492375,-0.0014326298492403182,-0.002110197640238741,-0.0012696763999648585,-0.0019723336186246478,0.0009335903935228463,0.0010187422818771538,-0.0035396908035738605,0.0031084175753630697,0.0015200696386131283,0.0006939740958569606,-0.0005579451042433417,0.0018996494381339254,-0.0011362601498469873,-0.00010817254612670226,0.004358259692790095,0.0034304148763537046,5.050710780411805e-06,-0.0010021620354946574,0.0003833918423216375,-0.0013979672978614854,0.0014346363553159364,-0.0010125865801178374,-0.003860987097113048,0.0021338194520280594,-0.0038133838385468405,4.9080555777932835e-05,0.001346285964559215,-0.00027810800342966107,0.000140493268850779,0.0011460050925803655,-0.0023589397899864413,-0.0008881145451016551,-0.0028509311551240145,0.00011715370844047005,-0.0007829232859660289,-0.0011623762804230113,0.0006645839685833527,0.0007023872530763592,-0.0009581287992035439,0.0004656269900225915,0.00032854167280106243,-0.00012176094386841466,0.0031934442813339693,-0.0004109225375251371,-0.0039076035486872145,0.0037369819963322857,-0.00020082962968264822,-0.0003319452571390751,-0.0026673081499531933,0.002894944010748559,0.0002512040527549564,-0.0018487867745930434,0.002523774914429047,0.0013544798165319508,-0.0031238332195866027,0.0005176743390280425,0.0021341113608003047,0.001664034749955158,-0.0009737770340210179,0.0005870297244124668,-0.0011563172976531064,-0.0020802676889309086,0.0019429878312705756,0.0015330987914455518,0.002195784924922617,0.0005928540683281007,-0.0008783081115083201,0.0024278740920558838,-0.003451540861215294
0.014499532238321863,0.0012890459292424898,0.002282559966196285,0.0005885856554844744,-0.00027913364750230827,0.0015290264522896553,-0.0018479312335113313,0.0018558016903216807,0.0011199182446795235,0.00038999441246176885,-0.0008863074130475726,-0.0046728209108181035,-0.0021664995840982347,0.0017613179773780182,-0.0016973669959518226,-0.0008351434807600767,-0.0011940461048809098,-0.003340092549786418,0.005653084400119436,-0.0017800538288336454,0.0022890361075121038,-0.003797111761171569,0.0006744081457366928,-0.0007539028022772954,-0.001234494127174866,0.0005452478178471822,0.0019628654554863173,5.148163560839171e-05,7.426582770956101e-05,0.005156122618900813,-0.0013254394833131966,0.0017277225586996507,0.000399004249423106,0.0026944561951010386,0.0018501068684299825,-0.0025154059367813366,0.003426089863321676,0.0007241739460219011,0.002333607965667872,-0.0008992096455301107,0.0008461622319364068,-0.00037034141383073,-0.001205349653308184,-0.004537027604815756,-0.0007163177923075259,-0.00026060397002937864,-0.002636086729365178,-0.004463316256221811,-0.00127573754549631,-0.0017027343220223513,0.001246594987147401,-0.0020412002331638927,0.0016970773817667484,0.0009636282255638968,0.0020096136344995258,-0.000610654203170302,-0.0023348775271773586,-0.0028887457521461603,-0.005280266075405286,-0.0018073250604377477,0.0004140885152050804,0.0025034169076652447,-0.00307834661549445,-0.0009850328901885989,-0.0024749932054998905,-0.0030252810071988516,-0.00029177213388520797,-0.0013159857197735166,-0.001781213807463882,0.002295245802613509,-8.59300167207911e-06,0.005828420000796078,-0.003080886348572123,0.00014184088028555084,0.00326029682833748,-0.00021389178403159961,-0.0018030462342684323,0.0018809577506839238,0.002271132683232107,0.001157730887619583,0.0023167404997924265,-0.0018484168383535841,-0.0006732413303300771,-0.0041697443537737295,0.0001358371950617599,0.000160224749366377,0.002873553691142303,0.00045199936000097355,0.0017616322588015119,0.0014979711877004323,0.0028789612947749364,-0.0014136247121994128,0.004117399759576659,0.00243561863458354,-0.0006369537837844994,0.0006491310256736946,0.0006623691234641559,0.0036361229319819472,0.0007961310350863253,-0.002041890055668716,0.0012788987657870894
0.013139212666323428,-0.0005191710547427973,-0.00034807049227832023,0.0031741894538910133,0.0007869252513549189,-0.002495770940704969,0.0016284358020493956,-0.003838959783775915,0.0006094960221086036,-0.001096836539402239,0.0001786447691684099,0.0017517504178597826,0.00225013381925026,-0.003142703967298717,0.00037105867441089585,-0.0016635062243437724,-0.00044823384141663453,0.0011465864439534619,-0.003760426853525469,-0.002768625461689299,0.00017357937373973595,0.0010230008918599095,-0.002178069268324394,0.0043479523726580325,0.0002771658777161708,0.0007010001751997201,0.00022163857017044338,0.0028042795525093298,0.0016051889229204835,0.0018610367949072836,0.0013547115978206604,-0.0009757272190388848,0.0035871879541571824,0.0012375621137909005,-0.0028567002058599287,0.0010618839845128914,0.0019524515673932305,0.0018094138089480235,-0.003061808212247916,0.00301490832245247,-0.0033212106882889044,0.003920240385886313,0.000637324814624918,-0.0031629652503782067,-0.0014211088595611544,0.0035414083314603403,-0.001800551759657001,0.001365910777823576,-0.00360987681356069,0.000381985530212655,-0.0011898308949331573,-0.003339250781057088,-0.0014392340904657653,0.002368643811605407,9.574952451863418e-05,-0.0015956089137828169,-0.0019248989854396912,0.0016458023923167325,0.0006263359334778798,0.0016889536110430178,0.002456413829477827,0.0006207143177799322,-0.0001239038284180873,0.0019971519889241396,-0.0029837800904250257,0.002094766983351941,0.0035529789687116877,0.004440581323058815,0.0017021539468205585,0.00044158814850446765,-0.0008446574539166735,0.0018489604314973456,-0.0031880959304313693,0.0007140182339815452,-0.0014519734085110111,-0.0018671120166731223,0.002000173232746747,-0.0038399604566894925,0.002112177925761886,-0.0011257549877783759,0.0019304119073967937,0.0038965530795930224,-0.0015286069790356178,-0.0025209307008970576,-0.0006962451586971324,0.0012089551145468191,-0.0022538378965202975,-0.0021435098518489005,-0.0033467039908290598,-0.00255913351642771,0.0013225140117456972,0.002030107465484216,-0.00536039955368314,-0.0023632642533719635,0.0007823108903758071,-0.00043440535995600826,0.0017205926964538511,-0.0014065078229085746,0.0015795060977242148,-0.000766557062362663,0.0020656770033276746
0.011939144754559126,-0.0021393155377666005,-0.001220174028654907,8.607417379879376e-05,0.0018357443148825068,0.0018909029409044723,-0.0008095620918589312,-0.0013318501539114624,-0.0008703625313725075,-0.004504157608943714,0.003835410444151905,0.0004147376199323258,-0.004452682507129943,-0.0014798682148858865,-0.0028173255720855754,0.000837122790402887,-0.00023397136221763314,-0.004695090900382287,0.00046275977152489126,-0.0035643049500387208,0.00355729397362924,0.001869776586636282,-0.0012208529498133934,0.0033542822728669514,0.002205733945469758,-0.0014584828001727764,0.0006214824886593605,0.002851064560624177,-0.003797697888185027,-0.0008135098237725723,0.0017492986886867453,-0.0062718624682402534,-0.004156141575533385,0.001703265136717137,-0.00029481983116029585,-0.002912901296876287,0.0010721031943542695,-0.0037522331996740544,-0.0010251845846457014,0.001951863898974645,-0.002217257989073364,0.00249908685756126,0.0028739522868912945,0.0026007654008094127,-0.0028723056834411174,0.0068689637835773545,0.0027062885271684563,0.0020767226090341994,-0.0039298469235882994,0.0006936448436088657,0.002619284737916179,-0.0048683659755169055,0.0007395604910924403,0.0010773213581931852,0.0016022326565209618,0.0008050703426571007,-0.0016346168036226714,-0.002280330106498763,0.0010882223903671405,0.0034228486901642036,0.002377560781776546,-0.0027656923539165286,0.0017397529828891746,-0.002665542212806061,0.00019331247268115085,-0.002799278897098132,-0.0010635173627028007,-0.0028146610759695575,-0.0014056745852270582,-0.0004907992074832669,0.001599108560733048,0.001949260951624915,0.0030543986916275975,0.00020378701937092195,0.0020568474158374284,0.0006506640623559056,-0.002950645431488457,0.0022173817211777903,0.0016344674260104855,-0.0008756187574274363,-0.0005091016705921087,-0.0031421399406397184,-0.0019342628002802815,0.005423429003254177,0.002180938053010749,-0.00016252143901301165,0.0028664683992083158,-0.00011546762737570434,0.0032709533849029707,0.0016770125128521614,0.0009131877169614378,-0.0015248740793818104,0.0028677922168946065,0.0008273087937007543,0.00020902763367535576,-0.00016184735165523275,0.0013809065782779703,0.00043729550252666067,-0.004260900866905012,-0.0006408312770282627,0.002780039027652262
0.009971766152774116,0.0002592677069114833,-0.0026659223012082214,0.0008962782565396045,0.0017553740658589015,-0.0032477336169203603,-0.002997585055427457,0.0014745098049228226,0.0003581119167804292,-0.002378208706048689,-0.0027518721611707376,0.0006793607953676906,0.0029052320895683495,-0.0010048915455603239,0.002445638369068342,-0.002664636629817721,-0.0020480121459506796,-0.0008393487338683708,-0.0010081912795880297,0.0002760486088185573,0.002745707173957162,0.0009347415718815895,1.9098612365779818e-05,-0.0020209484704574133,-0.002161781350776511,-0.004000695623690239,0.0037563131727472118,-0.0014664309029268107,0.0013926305284306635,0.00018734774500934358,0.0007356580596054351,-0.002819411465900452,0.002658040891443528,0.001858511712795245,0.00012659749884237105,-0.0018287750584446572,-0.001337743501418822,-0.00028125394250587117,0.0010294213204709312,0.0029617851535883024,0.0022693966779840135,0.00039888749007717454,-0.0024080132953158933,0.00124137750585986,0.002413275154397726,0.00223305270048455,4.497743706318676e-05,0.000848464844381673,-0.003651081282696174,-0.0012379166573757228,0.0012764319956950734,0.0022602291122490693,8.765887783331473e-06,0.003618630960166068,0.004568386357776635,0.0034922806643494174,-0.002483821556533514,-0.0007502649588468967,-0.0023067413859889654,0.002919313256501078,0.0009996267299466897,-0.002306890567408448,-0.0014022407530125782,0.00027518656659349447,-0.001072084470284025,0.0011507934565599806,6.318020407959377e-05,0.005052698116487141,0.0014035956491726094,-0.0007956381036699322,-0.0012658045966590856,0.0037632349758711624,0.00046248894959313274,-0.0029878660273175775,0.0013935052145981172,-0.0023364786486010534,-0.002766524332199443,0.0032424205311257412,-0.0031254473884457686,0.00020677609952915693,-0.0003059430681724414,-0.0037763506748876826,-0.0038504932993882633,0.0026136370262795747,-0.0015692543147750714,0.0013554258846719622,-0.0018519508690122313,-0.0005015651044719653,0.0012467666115689867,-0.0012780163765261426,0.0006872635922933486,0.002542230140816485,0.0021041046925187636,-0.004228383184380918,0.004244573646367671,0.0009505835139455437,5.50668374688053e-05,-6.417551415717638e-05,-0.0004895497646133865,-0.0023749397623591757,-0.0009863419471348178
0.018403172866436227,-0.0031828592985278224,-0.003700742778385134,-0.0026302833161767495,-0.0008693993064122739,-0.0016042924905348642,-0.0038875205925445544,0.003286807950959929,0.0027715515289763494,0.003824160878711953,0.0044546504734319665,-0.0007591917655420576,-0.0018422871384613016,0.002726065423428831,0.0007094084522169509,0.0003251122276251152,-0.0024148199930816043,-0.003595481564532978,-0.0027115010923988644,-0.0015583993113768369,1.385669461900288e-05,-0.002067914073434514,0.0016667467645610841,-0.003948072469555283,0.00102889129834571,0.001578675070039106,0.0024158055603893517,0.004183383394679247,-0.002501119698497113,0.0011777074745665437,-0.000580093880617929,0.0027510356908099424,0.0005733514836074635,0.0024629402909105793,-0.0033971411837409593,0.00034799421569817006,0.0012626123421924662,0.00048310715847413847,0.0030756362976287243,-0.006205165342092761,-0.002222593440213591,-0.0023288266271410717,-0.001917952348447765,0.00040962886141260844,0.0009023639027858465,0.0010674965529415556,0.0010481277223978061,-0.005751863915715097,0.0006677657856927792,0.0023728807298351146,0.0008734333697020036,-0.0010878500947265966,0.0026156854819546368,-0.001095909955669413,-6.32821364395287e-05,-0.0025894111147077396,0.002022309838744717,0.0009072603945678626,0.001132420370349333,-6.545279209171865e-05,0.0007051649416038973,0.0024627417145396805,0.004101134847887355,0.00024363594096335275,-0.0015973790947000465,0.002496920297563624,-0.0030429195457945236,0.0004428955406949167,0.002269146006398391,-0.003793649747840044,0.00022647137698443356,-0.0030929658265671576,0.001332710674013131,-0.0010283173685965434,-0.00257289393370523,0.0030069205666301995,0.0003656302867284109,0.006652537738504834,-0.002926324830015432,0.000998650040760167,0.0013938454451669245,-0.0029010010439078,5.3383227820167496e-05,0.003203587983087183,-0.0023468805593436274,-0.005164901220323865,0.0016514877082128207,0.0016822387025274429,-0.00015701620273517717,-0.001827642727556391,0.0009341740192992162,0.0010723728252803977,0.003402116774485269,-0.003918635494404672,0.004248266784782249,-0.00311448647298313,0.00010532706830161682,0.002480075600929704,-0.0004241809207338231,0.002517644457426778,0.0019528224960254682
0.009582392931722208,0.0016617809417672296,-0.0012202143229102787,0.002844250328364404,0.004521418043271222,0.004481001925651533,-0.0033576301301471573,-0.004848117249262645,0.0011885460553056608,0.003065767832780561,0.00018101388254851097,-0.0023399054385953464,0.0009620637541075328,0.0002649688819768996,4.998935383158775e-05,-0.0026359267798435884,0.0029324072323318245,-0.0012331305991494256,0.004738386218402222,0.004704635208729673,0.00046882726702276924,-0.0018244294330435266,-0.0027637512900203108,0.004290380605314782,0.0008889185952944548,0.001160510656791861,-0.00028381683010313754,-0.0003899593211827961,0.0013898675917881434,-0.0016958445381011385,-0.0030162748662730604,0.00012325326769009959,0.0015832260531709586,0.003034923432709437,0.0009205185503270341,-0.00341549825897692,-0.001713645996891821,-0.0016803629361690155,-0.0022180900179836617,0.0016804377295918562,-0.001744412924091917,-0.003031167285593803,-0.002616348500321129,0.0017880679926237486,-0.001437142981799406,-0.002197697078644506,0.002685398625163408,-0.001966071048233223,-0.0009596249586798203,-0.0009472303220340508,0.0029637708378079325,0.001545012297999529,0.00040501565483600703,-0.0022816043217089325,-0.0004838291621990372,-0.0001690684766068081,0.00048299067001478756,0.000388439540474688,-0.0026239798890321754,0.0028496496541247775,-0.0005711216438282655,0.000290964518432275,0.00011472822583361731,-0.0011671569543487248,-0.002518921411790448,0.0013850348970252222,0.001549124833748837,-0.003531024158182758,-0.0038494943201712872,-0.0015297234666773456,-0.00011881864174572484,0.0005709059735998235,-0.0015319067433561275,0.0005915970866559206,-0.0031834829305640994,0.0021893028850517903,-0.0019922398144448946,0.0004636886648133139,0.0014675175315922366,0.0010476230054623403,0.0005546583036499144,-3.004104530843158e-05,-0.0018439768517947946,0.00025129604751828843,0.0012471496121043099,0.003730831315149607,0.001924678053942016,0.002184369428891671,-0.0010680607415200056,-0.001956600539987487,-0.00019564084346756559,0.00030437765085350904,-0.0007020715237059819,-0.001478892579974864,0.0033724407222408006,0.00032616227867397497,-0.0019101936514746489,0.0021333572526546075,0.0003437931339206759,-0.0004372840852359565,0.001864403670398996
0.0099395519936414,-0.0007451641428997339,0.0005280258723345855,-0.0010286794457207396,0.0020513441106266646,-0.0003867320373901623,0.00037679319567154206,0.0015917819899239326,-0.0011906526279905874,0.0003732719182095197,0.0011138810486875524,0.00019562984789702902,0.0022850635134265686,-0.0039055539209525677,-0.00264318403371228,0.0027514735950277206,-0.001981873489157175,-0.004632100991730934,0.002262586937980766,-0.0005571022301862482,0.0013659995047676336,0.0018697917316698718,0.003068911246980025,0.000760168464388987,-0.001528434918603873,-0.0007250957568967187,-0.0026988747934073337,0.00036566411627768065,-0.002156230315082796,0.0008733946010701068,0.001891834798638612,0.003424887406116606,0.004556025675276827,0.0002690009213349629,0.0002000017670595912,-0.0004223678036552266,-0.000967714573556323,0.0020870791833515067,-0.0018918237947332806,0.0006350189819998379,-0.0006419248526370417,-2.29453996608512e-05,0.0010373661583210907,0.002513306242998365,-0.005215255188306766,0.002587549714044887,0.003064441150060125,0.0002254634143966059,0.0009279108625945852,-0.00048550029916630017,0.00126112048109488,-0.002878305820209201,-0.003343776432534138,0.0008470534338048244,0.002266248140597943,-0.002808469642096444,-0.0035701170579360356,-0.0022278692297397693,-0.0009060580579853912,-0.004444376356013103,0.00044552404163330584,0.0008439628645303772,-0.0034346588103870077,-0.0009725294725784058,-0.0006274061767646937,0.0001059175372123299,9.847242792645951e-05,-0.0005766292314327064,0.0032639807090402693,-0.0029906114965133363,0.0008545714282906085,-0.002958447619438206,-0.0023687981826198403,-0.0007299475461369314,0.001699248011822858,0.0032036237277880257,-0.0019252300270241906,0.001364074505694642,0.0018521961536605552,0.0031055443227642463,0.00033642123341628684,0.002015414548439684,-0.0012515742173376462,-6.564255446231577e-05,-0.002347231780830971,-0.001300041395604052,-0.0021909581095862036,-0.0006683249700560935,0.004427563824432883,-0.0014697339354609348,-0.001679172421950589,-0.0024825181251871423,0.00033236340871747,-0.0002167210171035836,0.0037983619869796877,0.004695607603519037,-0.001422731716478004,0.001912441464933604,0.006857360546280081,0.0008724778161474571,-0.001738511658552555
0.010772813987109713,-0.00013921108970886185,-0.0018507471770754784,-0.0015542142584531037,0.00027858416737927625,-0.0003269993859867868,0.004983658791181055,0.0018343419620593584,0.002087357949771054,-0.0018049511127219407,-0.0012888087020265083,-0.0043446509919093735,-0.0004115939315781858,-0.0007440031443295698,-0.0045913553652294,0.0003653165754405849,0.0006527624838721194,0.0008582254263546829,-0.0006660479749859124,-0.0004048715058830981,-0.0005201894871907686,0.0035064185645788783,-0.003463577123735012,-0.0002953344026282055,0.0032727880068099124,0.0014927661229198574,0.001283271298579722,0.0021182567871296854,-0.00024206351043869477,-0.0005150847620879167,0.004567984394328286,0.0024820568041994105,-8.505328117264406e-05,-0.003983476451872185,0.0010196687669110902,0.002789890354401959,0.00047974587943924485,-0.00017432937490932546,-0.0013490563512510358,0.002966252883461412,0.0019250579701556344,-0.0021130888449672485,8.946509792690175e-05,-2.4590665640890267e-05,0.0009264684704233795,-0.0020808967505430206,-0.0035099276189424684,0.0005073618900501784,-0.0005428840947954289,0.0019187649550976398,0.001356646812455607,-0.005032551889801754,5.0109896639149935e-05,-0.00021686672488977228,-0.0029868111551631547,-0.0011985269431671372,0.0038226125938317776,-0.00253641846349658,0.0003751759548123156,0.00018338510155090906,-0.0008341406953031583,-0.00345375915075161,0.0013607386158039025,0.0022434766450805674,-0.001525113423389304,-0.0007053197737826507,0.0001225236779567973,-0.001131140250010196,-0.00014242309613546342,-0.0021563013742362724,-0.0011987107997733057,-0.0005109563491586943,0.0005896226337081026,-0.00023787204937852834,0.003956504039773831,0.0015749413999377355,0.003043792387420125,-0.002920135427342578,-0.003252839287776294,3.922437779467676e-05,0.003840339964306524,-0.00265755482356034,-0.004046655123238289,0.003422913961588924,0.0034420204363628582,0.0004238039027490625,-0.0017429720442134991,0.0033264272883551786,0.0014029514865291626,0.0025147786509421084,-0.0011802703230506602,-0.0025312747819232853,0.0043313877153648575,0.002561142393272293,-0.0028605683375274456,-0.0028096479411417684,0.0024842972477685512,0.00035895935251537405,-0.0040208395657839666,-0.000359532425779389,0.005311711046821353
0.010127641231780274,0.002564133904646285,-0.00022873902096781743,-0.002577229494005126,-0.0017257129474735184,-0.0038260474452309345,-4.247946158170927e-05,0.00011712386316037309,0.004883363109023393,0.00037261761833066315,-0.001991308859172877,-0.0009190381684688782,-0.00017628649844686733,-0.0012032690053501245,-0.005184483933867828,0.0018623065444019482,-0.001385605484376408,0.0017122064612127598,0.0034085410671416197,0.0014833996893196034,0.004389007712693802,0.00043419342383503806,0.0010131713244212607,0.004811507671945636,0.00106808910224668,-0.0002247612691309046,-0.00024296483287146193,-0.002012569980229046,-0.0005971545165565003,-0.0005653916683266162,-0.002839000858179947,-0.001219191375193301,-0.005632315583398288,0.0003919232597803317,-0.001279363453597364,0.004226420826353605,0.0037796063999347576,-0.00010381453968897284,-0.0020604798256455207,-0.0030682513253942707,-0.0008091550412794909,-0.001330836644016053,-0.0018254408500694974,-0.0016618294535862145,-0.0002470740949575832,-0.00029432201744929675,0.0012729802343911774,0.002404439553644582,-0.0013981523394896171,-0.0004272719797822908,0.0014626293467146082,-0.0009650602074455006,-0.0006926661056607922,-0.002673519245669683,0.00660145740696008,0.00022831679625226996,0.00474099924826119,-0.0003383510498587459,0.00631508760193102,-0.00023907494009811457,-0.0005702127300661586,-0.0028444967727439935,0.00017330932044886895,-0.0007522267174892844,-0.0023200756588235495,-0.0024562196043965514,-0.0009367839260464098,0.00025332709661242983,-0.0037669545224538145,0.001704185544470963,0.002204796557759878,-0.0005702956606394681,-0.002106789539530773,0.0007133101474962923,-0.0016450691571405363,0.001165733893811078,-0.00011916813864537796,-0.0005043405663443809,9.446524355667557e-05,0.0032285525132852524,0.00024595051985709605,0.001274768810711371,0.0011623171589860266,0.0018118320804458605,-0.0004253545037745837,-0.0020585681857900645,0.0012911495435054296,0.003644869365845475,0.002454823817674842,-0.00014048583828722708,0.0025498660901195633,-0.0025681208780356474,-0.0026898642102468565,-0.0033106436182345983,0.0001594390664090238,0.0041199162895294295,-0.0035988923620854907,0.0028777922205845013,0.0025782166424661115,0.0003427461094026001,-0.002609663738106136
0.015241767739638978,0.0016922879458103322,0.002337080596250526,0.0023062263528973235,-0.0002265597132004981,-0.00464578734921731,0.0009999978791792245,-0.0012367640313953071,-0.0005722450495265258,0.0012383490927417857,0.0027563304979055536,7.817183010023071e-05,0.0036732858559175643,-0.0028848466543176026,0.0036922646872257214,0.0029305610758713187,-0.001576352376209658,0.0008343950345713017,-0.0014990901311435884,0.003585554942528141,0.00010920187257079123,-0.0004572877232212055,-0.001996056837417593,2.0046607493895287e-05,0.007481193280395687,0.0018007356210488438,-0.0007090436770829433,0.0015024445116367715,0.000641461942469131,0.0016086978442709766,-0.004574830286608411,-0.0019913120851940613,0.0005370179272753829,0.003556314228051771,-0.0008344768015151438,-5.2821399138559214e-05,0.0019247196652154898,0.004043279987318376,-0.0016237223054150738,-0.000935412543948657,-0.0029773532020702506,-0.00033638756957458,0.0007836426413866081,0.0026251047736295394,0.002827325618485492,-0.00419033409786978,-0.0034854050337974757,-0.0032948526077173764,-0.0005881170525733596,0.0009015895694516688,-0.0020574319144883667,-4.4071773397380554e-07,-0.0024848539714810588,-0.0006116433046030054,-0.0010728128841646432,0.0013841490666097016,0.00019552899638539687,-0.0014766668330576872,0.00030211863837954664,0.004675355148387135,-0.002189816842207295,0.003944495069481879,0.0004152860980945609,-0.00227965687201846,0.003981571514644329,-0.00290976461335707,0.0034809373000967885,-0.0010157249946369557,-0.0020100618450070553,-0.003328189541758216,3.372458229374195e-05,-0.0016608212345172694,-0.0007126620107007356,-0.001028274615179767,0.0022481783531268797,-0.002058404320201642,0.005286702884761074,0.0016740373363909153,0.0012546995809675013,-0.003551762013683595,-0.0008642792695610732,-0.0034241445117009508,0.0025024085962613136,-0.0005895616017786315,-0.0005314250409624926,-0.0015008842173400074,-2.5380037212893595e-05,-0.0033427541623113994,0.0007527435650383664,-0.0023902701060790656,-0.0006486197197708217,0.002321400792371216,-0.0015656680004030288,-0.0056874494342179695,-0.0007238323425276452,0.001097681891192909,0.003245852103730347,-0.0015170172694861247,-0.0005326079655924307,0.00200778725575716,-0.00022691703452439767
0.012290127807754687,-0.0024427761164908975,0.003138894522680074,0.0022467378012425124,0.0023741449533837217,-0.00446589464046532,0.0013708135918251818,-0.003394370277322755,0.000950614838902665,0.003201165968074235,-0.0027589858987398133,0.002827700303283156,-0.001460843616439236,-0.0007407900543983765,0.0033989824377284052,-0.0010611000780588937,-0.0014704556488952217,-0.0011292142153557136,-0.000268870001080921,0.0024241751077940126,-0.00014446583829133883,0.0021100985539875433,-0.0024924795139927786,-0.002069872734680524,0.001447804289002528,0.0013838384254082,-0.0011724198014811406,-0.00016464099406625528,0.0009927201768926215,-0.0024623611169932494,-0.0014220616112434372,-0.005362696364305572,0.0041574825464241235,0.004169037583855626,0.0001550892310778681,-0.0018905381619082398,-0.004184480787203641,0.003491251471633172,0.002473066547556136,-0.004733130557836609,-0.00015180202693303315,0.0006359724992242152,0.001982004973744405,0.0016176046486488763,0.0029947765162674023,0.0010275172740366785,0.0003783220436104014,0.0026015488667053936,-0.00027171850473511227,-0.0020085685556474686,-0.0013227059358373,-0.0036173956717727544,0.001712880917383606,0.0013347423526150963,0.0007111019510941133,-0.0018377654322734558,0.0009099625437660961,0.0010681327267816321,0.0013624944567670223,0.003533489865733812,-0.0034670693275524475,0.0040217180648836216,0.0012929017241350258,0.002802449055111738,-0.00028404565975149326,-0.002237322283039238,0.0014207071353226099,0.00010001802325022941,-0.0032503503672258946,-0.0007053391319182756,0.0033696017252562833,0.0029856137971801663,-0.0014750343547120376,0.0010414479322240502,8.267317188960459e-05,-0.0027949382376682005,-0.0011708854919685208,0.0016813804825075867,0.0038508877873785325,-0.00046703387015251845,0.0004572251040773624,-0.0009554456439269251,-0.001974748642225359,0.0021816419937856443,0.003659043352480381,-0.0013135938844243626,-0.0010938449491879512,-0.001522183794218835,0.0013841889423056714,-0.0017228889843869295,0.0025362738384037075,-0.005266556835409377,-0.00178368673821996,0.0017495943222209879,-0.00480068977475136,0.0019399379088866444,-0.0006228561284115552,-0.0014568564781126535,-3.281020145778184e-05,-0.0006489041080389743,-0.0012848954381672083
0.017349640282625187,0.0009995599283596822,-0.0004236604699491553,-0.0008993183972288984,-0.0009417296621124407,0.001130403065522026,-0.0006406963390228736,-5.6931294711901924e-05,0.005535796044969666,-0.0017937858435978934,-0.00317154396670554,0.0040475280355545635,0.0013523590261050218,-0.0022158868355380756,-0.0006050620655626946,0.0006948323689285774,6.0652599606389294e-05,-0.0013285427395384928,-0.0009309714523110224,0.0004239347033651743,-0.0009304628005098337,0.001448548697329835,-0.002696060026116988,0.0007206950368853829,0.0005140560973652958,0.00011812496540559367,0.003011966421175715,0.002574449792144871,0.0026125699220231535,-0.0010447128845053936,4.692820553497557e-05,-0.0014003860804740324,9.228731227689888e-05,0.001698912589105896,0.0013672241357030961,0.004928688309843418,-0.005175333052860306,0.0016478953114268855,0.0014888494852329417,-0.0013914450843502705,-0.0002594160554300823,0.0002123103958119833,0.0003811240038202616,-0.0027022038817676747,-0.00028217450710774604,-0.0025926502106062093,0.0011822666542785788,-0.0023099507190605297,0.003992842091071137,0.005306981161208908,-0.004531179533749034,0.00237388251914383,-0.0016699037024713683,-0.0046971991035288044,-0.0009053764111913021,0.002089467524265945,0.0010839995829085476,0.0005880132792922951,-0.0016751620846185398,-0.0011511937543637015,-0.001267069710419806,0.00167182908514483,-0.0010441960985570365,0.0025375268026373646,0.001741710722777764,0.0032404027404663747,-0.001797122933952218,0.0022140599779280025,0.003939434918176238,0.0005714892935638347,-0.0006997956451368905,-0.0005505542534140546,-0.00018510630915094433,0.0023153312411230307,-0.0003849550505422234,0.0030940568294366678,-0.003618014341097143,0.0013896370257198375,-0.004070313385369426,0.0030488551430201062,-0.0028147721688675346,-0.00300493938973099,0.0032077252580857826,-0.0019759851231933336,0.0009637724646217278,0.0019541081857854707,0.0015355548855085603,-0.0018404229408152614,0.0019382593438655351,-0.0005963711564796499,-0.0019632955456914073,-0.003137686758630023,0.0015149493664211098,-0.0016785289711866672,0.0003420318581516224,-0.00023026328935057041,-0.0005205908913231219,-0.0009118541835988479,-0.002458774053839728,-0.0004810672669951885,-0.003497575356601318
0.015321560309350881,0.0020636664119606024,0.00012224491747537085,-0.0001644184838945689,0.002276575507370377,-0.0022168648310061405,-0.0016818009035501306,-0.0034825083014510807,-4.5954197336806795e-05,0.000265548572567657,0.0010605628914012483,0.0022173317540263686,0.0037347671470419224,0.002841028171790309,-0.0009994985957580479,0.00017744668098599337,-0.0017587150585063164,-9.367528754836828e-05,-0.0031797106751871715,-0.00037461229377530055,-0.0028491061959742352,0.004618464353801201,0.004119812076414464,0.0011090632681975408,0.0033125451074834306,0.0009583196390753259,-0.0030370712280658714,0.0005314924181804213,-0.0023421413997614464,-0.002130882671798727,0.0017237091959340228,-0.0012712476154206054,-0.0014986643462806776,0.000932113601531559,0.00013785432593466687,-0.004346674901090057,0.001470556479980917,0.0050527451274388294,0.0007082228994588424,-0.003532093890872977,-0.004976478265479052,0.0004247208060784638,0.00015254953775576194,-0.0001562142850652093,0.00034604861940599595,0.0037124594960599847,0.001879799741017748,0.0040061915455959305,-0.002725396041742774,-0.0013078024446901266,-0.0036449853067913795,0.002079371798948894,-0.0015478282963570758,-0.002024359730473091,0.0027585129341308953,0.0022998112175110197,0.0017536628878400261,-0.0009436999615197167,-0.0006655832401901956,2.3087446418382273e-06,-0.0007011547974923666,0.002345313324461045,0.0009908204080996863,0.003391045853910188,-0.0029442020730350267,-0.0031880553993863525,0.0005775027510724016,0.004212909455030537,-0.0011870018251056934,0.0014196239092434267,0.0004094892820572755,0.00045105479620043273,0.001582083671376582,0.0014121588888473461,-0.0033099350278815395,0.0024001743964279184,0.0003436685882667879,-0.004840789420115554,0.003943047521516343,0.0001493482689644797,0.0011311050292936043,0.0018186878443308152,0.0015556721103402384,-0.00025654363776583605,-0.0024079311307433544,-0.0017930270754864732,-0.0031807962399064255,0.00047135554956692134,0.005980667026500313,-0.0005658961790717347,0.0017088176099096714,-0.0002820071410649153,-0.0015332306457980745,-0.00025977520055106465,0.0015175569204887768,-0.0021703042382103356,0.00229801157194974,-0.004318774525530254,-2.869854113403524e-05,-0.002708076256075412,-0.0042420933292229126
0.014391147887458882,-8.245213112123076e-05,-0.00035453917302470406,-0.000106551622619281,5.380612899783844e-06,0.0029555282461454263,0.0007580250300680683,0.0038562718958141348,0.001433393954586348,-0.0024704936442298425,0.0025059711429886,0.0006997649885277528,0.005037486778766828,-0.0004181282013330227,0.0004783831524645166,-0.004554506700020858,-0.0014727496364054188,-0.001167642336603709,-0.002969602356324865,-0.002529935435395075,9.914295969301089e-05,0.0005315054446963943,0.001839303720051919,-0.0010515327930545198,-6.284799631339109e-05,-0.000583466404521985,-0.0041164771526023824,0.0006162950240032676,-0.0004315105473338164,-0.007392629215998365,0.0012904727265427042,5.579808201909365e-05,0.0002890877959698261,0.003201753276788779,-3.998323119277216e-05,-0.0023586470361967302,0.0015023084249884198,-0.0019385449710117783,0.00017346001319860568,-0.001570503681014523,-0.0006135189484405956,0.001052500366200687,-0.0010159510987539117,0.0019499765988144034,-0.0015204122446507169,0.003992407233853123,0.0007451112435689058,0.0005497733174429347,-0.0013285987453108493,0.0009010822108736815,3.522827702005112e-05,-0.0015350907555680311,0.0005743722055472613,0.0033866699675830043,0.0019556454120831747,0.0015489438896214537,-0.0004960597280477041,-0.0009009056972962579,-1.4432348220945478e-05,-0.0012505621716487464,0.0009791213470593744,-0.0027709835104525017,-0.00039043660797224305,-0.0023025907644007053,0.0004382003170200769,0.000676926286650574,-0.0012315039317898286,0.0013039177629842785,0.0026270414468466856,-0.0031356300781051603,-0.0007034253407022108,-0.0013836971784641275,-0.0008564268612258754,-0.0016118810089251346,-0.0002903193035927634,0.0014365526578906933,0.001490526740163989,0.001934380515994851,0.001120273555821699,-0.0010454611441159888,0.0035060913000702423,-0.0007686085881637253,0.00020075108724640025,-0.0004532146539275676,-0.0008967549197811439,-0.0023482907946017454,-0.004106262399242876,0.0005302844253593722,-0.0020971219112666485,0.0017597521577913569,0.0016605619712326404,-0.0015986791506666137,0.0017686733630262407,0.00047127948016745925,0.005375934834668876,0.00153675911240845,0.0004143960885601986,0.0009936734075071461,-0.0008449937206415372,0.0025529666489040206,9.133983439610638e-05
0.01094081459255246,-0.0006890474567668404,0.0015386695035778442,-0.0023309374611821454,-0.00010286069955641281,0.0007152386257147703,0.0016801308457888207,0.006139621521135463,-0.0017582407255533992,0.0004473309779290168,-9.974783981928862e-05,-0.00012919437009390952,0.002435895125727454,-0.0007708242689368114,-0.0012204010300678448,0.0004692707352453875,0.0006644404868734865,0.0005083345420835589,0.0031640989031313385,-0.0012610901705932902,-0.002941289466287542,0.0030301327785110643,-0.003015085588450841,0.004190631479469514,0.0006319874781413826,0.0022030629705983703,-0.0018235324127689548,0.0006376693268029157,0.002117884169264355,-0.0017398496663602943,-0.001986998192652565,0.0020976756669798197,0.002110857873568177,-4.295828549574004e-05,0.001693797922474954,0.0005886138213433242,-0.004006243006107501,-0.0027288676438343472,0.0001468944499163927,-0.0007507865480927617,0.001991985832624479,-0.0024610033570924917,0.0028126057972238184,0.0014515927028385981,0.0010260856598125535,-0.0023214758478611944,0.0005182946948334083,-0.003331262454605992,0.0014208251786286803,0.0020250097344298836,0.002089094607461287,0.0027390060701433143,0.0004251558771719224,-0.0027527140367844477,-0.0002830745051503786,-0.0012340661385794832,7.498056758099298e-05,-0.0011544069511807318,0.0018541681507138863,-0.0014149437487873593,-0.0031174501350254803,-0.0019212927912704524,0.003664744200370944,-1.0366309424701334e-05,0.0004979480506714646,-0.0026606472157105327,-0.0011093009769011612,-0.002235293023176357,0.0016425049144547141,-0.0026200504860801025,-0.0009879066411133783,-0.004859026035132293,0.0013677139228188107,-0.0005708625373284637,0.003829793657882269,-0.0006038123040620479,0.002765125964207299,0.0029312949964363445,0.0010953662080798697,-0.002480505494114295,0.00362230148144651,-0.005130428712554483,-0.002116035567348193,-0.002910486426065594,0.0005610434598997914,0.0025524319484888937,-0.0028786904742149734,0.001984374608133522,-0.0015432765053028704,0.002959590271807584,-0.002153846042484015,-0.001053729192296155,0.00020125732213945868,0.0035395843123321403,0.0001206002822055156,0.0014304126025846153,0.0007205434187281376,0.00043648363481050444,0.00048249363656162174,-0.005050805480861203,0.001498683430219662
